MTP
version = 1.1.0
potential_name = MTP1m
scaling = 2.371277573144442e-02
species_count = 1
potential_tag = 
radial_basis_type = RBChebyshev
	min_dist = 1.829690000000000e+00
	max_dist = 5.000000000000000e+00
	radial_basis_size = 8
	radial_funcs_count = 2
	radial_coeffs
		0-0
			{3.619524084495235e-02, -9.331312942487033e-02, 6.939292826067499e-01, 4.627690349469201e-01, 4.702409084001490e-01, 2.678263371284004e-01, 1.738677067931447e-02, -3.361214163101082e-02}
			{-1.720058595586414e-01, 7.986778230088384e-01, -3.022574061681971e-01, 4.403290720495396e-01, 6.747561551454123e-02, 2.063792791720012e-01, -1.129119470155345e-02, 2.372887989601271e-03}
alpha_moments_count = 18
alpha_index_basic_count = 11
alpha_index_basic = {{0, 0, 0, 0}, {0, 1, 0, 0}, {0, 0, 1, 0}, {0, 0, 0, 1}, {0, 2, 0, 0}, {0, 1, 1, 0}, {0, 1, 0, 1}, {0, 0, 2, 0}, {0, 0, 1, 1}, {0, 0, 0, 2}, {1, 0, 0, 0}}
alpha_index_times_count = 14
alpha_index_times = {{0, 0, 1, 11}, {1, 1, 1, 12}, {2, 2, 1, 12}, {3, 3, 1, 12}, {4, 4, 1, 13}, {5, 5, 2, 13}, {6, 6, 2, 13}, {7, 7, 1, 13}, {8, 8, 2, 13}, {9, 9, 1, 13}, {0, 10, 1, 14}, {0, 11, 1, 15}, {0, 12, 1, 16}, {0, 15, 1, 17}}
alpha_scalar_moments = 9
alpha_moment_mapping = {0, 10, 11, 12, 13, 14, 15, 16, 17}
species_coeffs = {-5.105688674035237e+00}
moment_coeffs = {7.019899211835610e-01, -3.353015429736460e+00, 6.450865733127666e-01, -4.792122525600820e+00, 6.537181038009745e-01, 5.099532519219660e-02, 4.207103525588298e+00, -4.476091939193733e+00, 5.363538002947770e+00}