MTP
version = 1.1.0
potential_name = MTP1m
species_count = 1
potential_tag = 
radial_basis_type = RBChebyshev
	min_dist = 2
	max_dist = 5
	radial_basis_size = 8
	radial_funcs_count = 1
alpha_moments_count = 1
alpha_index_basic_count = 1
alpha_index_basic = {{0, 0, 0, 0}}
alpha_index_times_count = 0
alpha_index_times = {}
alpha_scalar_moments = 1
alpha_moment_mapping = {0}
